digraph Tree {
node [shape=box, style="rounded", color="black", fontname="helvetica"] ;
edge [fontname="helvetica"] ;
0 [label="Freq <= 200.0\nsquared_error = 4789.2\nsamples = 171042\nvalue = 256.4"] ;
1 [label="Util <= 87.5\nsquared_error = 2113.3\nsamples = 107234\nvalue = 221.7"] ;
0 -> 1 [labeldistance=2.5, labelangle=45, headlabel="True"] ;
2 [label="Util <= 62.5\nsquared_error = 1919.0\nsamples = 90540\nvalue = 218.6"] ;
1 -> 2 ;
3 [label="WorkMode <= 0.5\nsquared_error = 1948.2\nsamples = 70764\nvalue = 216.7"] ;
2 -> 3 ;
4 [label="Util <= 37.5\nsquared_error = 2210.2\nsamples = 7162\nvalue = 222.4"] ;
3 -> 4 ;
5 [label="squared_error = 3056.5\nsamples = 4312\nvalue = 225.8"] ;
4 -> 5 ;
6 [label="squared_error = 911.0\nsamples = 2850\nvalue = 217.3"] ;
4 -> 6 ;
7 [label="WorkMode <= 1.5\nsquared_error = 1914.3\nsamples = 63602\nvalue = 216.0"] ;
3 -> 7 ;
8 [label="Util <= 37.5\nsquared_error = 1176.4\nsamples = 9994\nvalue = 210.4"] ;
7 -> 8 ;
9 [label="squared_error = 1480.4\nsamples = 7131\nvalue = 212.6"] ;
8 -> 9 ;
10 [label="squared_error = 392.9\nsamples = 2863\nvalue = 205.1"] ;
8 -> 10 ;
11 [label="WorkMode <= 3.5\nsquared_error = 2045.2\nsamples = 53608\nvalue = 217.0"] ;
7 -> 11 ;
12 [label="WorkMode <= 2.5\nsquared_error = 2219.0\nsamples = 16522\nvalue = 218.8"] ;
11 -> 12 ;
13 [label="Util <= 37.5\nsquared_error = 2382.8\nsamples = 8797\nvalue = 216.5"] ;
12 -> 13 ;
14 [label="squared_error = 1771.3\nsamples = 6172\nvalue = 215.0"] ;
13 -> 14 ;
15 [label="squared_error = 3795.5\nsamples = 2625\nvalue = 219.9"] ;
13 -> 15 ;
16 [label="Util <= 37.5\nsquared_error = 2019.9\nsamples = 7725\nvalue = 221.6"] ;
12 -> 16 ;
17 [label="squared_error = 2161.1\nsamples = 5092\nvalue = 222.4"] ;
16 -> 17 ;
18 [label="squared_error = 1744.3\nsamples = 2633\nvalue = 219.9"] ;
16 -> 18 ;
19 [label="WorkMode <= 5.5\nsquared_error = 1965.1\nsamples = 37086\nvalue = 216.2"] ;
11 -> 19 ;
20 [label="WorkMode <= 4.5\nsquared_error = 1593.3\nsamples = 14185\nvalue = 213.5"] ;
19 -> 20 ;
21 [label="Util <= 37.5\nsquared_error = 1058.1\nsamples = 7272\nvalue = 216.5"] ;
20 -> 21 ;
22 [label="squared_error = 977.6\nsamples = 4840\nvalue = 214.9"] ;
21 -> 22 ;
23 [label="squared_error = 1203.2\nsamples = 2432\nvalue = 219.6"] ;
21 -> 23 ;
24 [label="Util <= 37.5\nsquared_error = 2140.8\nsamples = 6913\nvalue = 210.4"] ;
20 -> 24 ;
25 [label="squared_error = 3201.8\nsamples = 4352\nvalue = 215.8"] ;
24 -> 25 ;
26 [label="squared_error = 174.1\nsamples = 2561\nvalue = 201.2"] ;
24 -> 26 ;
27 [label="WorkMode <= 6.5\nsquared_error = 2187.5\nsamples = 22901\nvalue = 217.9"] ;
19 -> 27 ;
28 [label="Util <= 37.5\nsquared_error = 2847.1\nsamples = 5964\nvalue = 221.9"] ;
27 -> 28 ;
29 [label="squared_error = 1921.2\nsamples = 3709\nvalue = 216.0"] ;
28 -> 29 ;
30 [label="squared_error = 4219.2\nsamples = 2255\nvalue = 231.5"] ;
28 -> 30 ;
31 [label="WorkMode <= 8.5\nsquared_error = 1945.9\nsamples = 16937\nvalue = 216.5"] ;
27 -> 31 ;
32 [label="WorkMode <= 7.5\nsquared_error = 1908.6\nsamples = 11456\nvalue = 214.8"] ;
31 -> 32 ;
33 [label="Util <= 37.5\nsquared_error = 2970.3\nsamples = 6028\nvalue = 217.8"] ;
32 -> 33 ;
34 [label="squared_error = 3225.5\nsamples = 3638\nvalue = 216.9"] ;
33 -> 34 ;
35 [label="squared_error = 2580.5\nsamples = 2390\nvalue = 219.1"] ;
33 -> 35 ;
36 [label="Util <= 37.5\nsquared_error = 699.4\nsamples = 5428\nvalue = 211.5"] ;
32 -> 36 ;
37 [label="squared_error = 888.0\nsamples = 3200\nvalue = 215.9"] ;
36 -> 37 ;
38 [label="squared_error = 369.9\nsamples = 2228\nvalue = 205.3"] ;
36 -> 38 ;
39 [label="Util <= 37.5\nsquared_error = 2005.3\nsamples = 5481\nvalue = 220.0"] ;
31 -> 39 ;
40 [label="squared_error = 871.6\nsamples = 3221\nvalue = 215.3"] ;
39 -> 40 ;
41 [label="squared_error = 3542.2\nsamples = 2260\nvalue = 226.8"] ;
39 -> 41 ;
42 [label="WorkMode <= 0.5\nsquared_error = 1753.2\nsamples = 19776\nvalue = 225.6"] ;
2 -> 42 ;
43 [label="squared_error = 30.1\nsamples = 2030\nvalue = 199.1"] ;
42 -> 43 ;
44 [label="WorkMode <= 8.5\nsquared_error = 1860.5\nsamples = 17746\nvalue = 228.6"] ;
42 -> 44 ;
45 [label="WorkMode <= 7.5\nsquared_error = 1959.7\nsamples = 15876\nvalue = 231.4"] ;
44 -> 45 ;
46 [label="WorkMode <= 6.5\nsquared_error = 1956.2\nsamples = 13979\nvalue = 228.1"] ;
45 -> 46 ;
47 [label="WorkMode <= 5.5\nsquared_error = 2098.5\nsamples = 12144\nvalue = 230.7"] ;
46 -> 47 ;
48 [label="WorkMode <= 1.5\nsquared_error = 1916.6\nsamples = 10310\nvalue = 226.5"] ;
47 -> 48 ;
49 [label="squared_error = 2960.9\nsamples = 2195\nvalue = 237.4"] ;
48 -> 49 ;
50 [label="WorkMode <= 4.5\nsquared_error = 1593.5\nsamples = 8115\nvalue = 223.5"] ;
48 -> 50 ;
51 [label="WorkMode <= 3.5\nsquared_error = 1818.8\nsamples = 6071\nvalue = 226.2"] ;
50 -> 51 ;
52 [label="WorkMode <= 2.5\nsquared_error = 2315.6\nsamples = 4102\nvalue = 223.7"] ;
51 -> 52 ;
53 [label="squared_error = 622.1\nsamples = 1998\nvalue = 221.0"] ;
52 -> 53 ;
54 [label="squared_error = 3884.4\nsamples = 2104\nvalue = 226.2"] ;
52 -> 54 ;
55 [label="squared_error = 728.2\nsamples = 1969\nvalue = 231.6"] ;
51 -> 55 ;
56 [label="squared_error = 832.7\nsamples = 2044\nvalue = 215.5"] ;
50 -> 56 ;
57 [label="squared_error = 2452.3\nsamples = 1834\nvalue = 254.8"] ;
47 -> 57 ;
58 [label="squared_error = 670.8\nsamples = 1835\nvalue = 210.9"] ;
46 -> 58 ;
59 [label="squared_error = 1339.1\nsamples = 1897\nvalue = 255.2"] ;
45 -> 59 ;
60 [label="squared_error = 430.5\nsamples = 1870\nvalue = 205.5"] ;
44 -> 60 ;
61 [label="WorkMode <= 0.5\nsquared_error = 2835.6\nsamples = 16694\nvalue = 238.4"] ;
1 -> 61 ;
62 [label="squared_error = 6520.4\nsamples = 1706\nvalue = 270.4"] ;
61 -> 62 ;
63 [label="WorkMode <= 1.5\nsquared_error = 2283.6\nsamples = 14988\nvalue = 234.8"] ;
61 -> 63 ;
64 [label="squared_error = 472.2\nsamples = 1864\nvalue = 206.3"] ;
63 -> 64 ;
65 [label="WorkMode <= 2.5\nsquared_error = 2407.2\nsamples = 13124\nvalue = 238.7"] ;
63 -> 65 ;
66 [label="squared_error = 3543.2\nsamples = 1702\nvalue = 266.9"] ;
65 -> 66 ;
67 [label="WorkMode <= 8.5\nsquared_error = 2099.6\nsamples = 11422\nvalue = 234.5"] ;
65 -> 67 ;
68 [label="WorkMode <= 7.5\nsquared_error = 1702.1\nsamples = 9893\nvalue = 230.7"] ;
67 -> 68 ;
69 [label="WorkMode <= 3.5\nsquared_error = 1839.8\nsamples = 8349\nvalue = 233.6"] ;
68 -> 69 ;
70 [label="squared_error = 1058.1\nsamples = 1678\nvalue = 217.5"] ;
69 -> 70 ;
71 [label="WorkMode <= 4.5\nsquared_error = 1956.3\nsamples = 6671\nvalue = 237.7"] ;
69 -> 71 ;
72 [label="squared_error = 1331.4\nsamples = 1625\nvalue = 250.2"] ;
71 -> 72 ;
73 [label="WorkMode <= 5.5\nsquared_error = 2093.0\nsamples = 5046\nvalue = 233.6"] ;
71 -> 73 ;
74 [label="squared_error = 1332.6\nsamples = 1738\nvalue = 225.7"] ;
73 -> 74 ;
75 [label="WorkMode <= 6.5\nsquared_error = 2438.3\nsamples = 3308\nvalue = 237.7"] ;
73 -> 75 ;
76 [label="squared_error = 1409.7\nsamples = 1626\nvalue = 238.8"] ;
75 -> 76 ;
77 [label="squared_error = 3455.9\nsamples = 1682\nvalue = 236.6"] ;
75 -> 77 ;
78 [label="squared_error = 665.6\nsamples = 1544\nvalue = 214.9"] ;
68 -> 78 ;
79 [label="squared_error = 3955.9\nsamples = 1529\nvalue = 259.3"] ;
67 -> 79 ;
80 [label="Util <= 62.5\nsquared_error = 3866.1\nsamples = 63808\nvalue = 314.6"] ;
0 -> 80 [labeldistance=2.5, labelangle=-45, headlabel="False"] ;
81 [label="Util <= 37.5\nsquared_error = 3213.1\nsamples = 32398\nvalue = 294.5"] ;
80 -> 81 ;
82 [label="WorkMode <= 8.5\nsquared_error = 3526.3\nsamples = 16168\nvalue = 285.6"] ;
81 -> 82 ;
83 [label="WorkMode <= 7.5\nsquared_error = 3397.2\nsamples = 14805\nvalue = 283.0"] ;
82 -> 83 ;
84 [label="WorkMode <= 5.5\nsquared_error = 3678.3\nsamples = 13384\nvalue = 285.8"] ;
83 -> 84 ;
85 [label="WorkMode <= 0.5\nsquared_error = 2705.2\nsamples = 10233\nvalue = 279.7"] ;
84 -> 85 ;
86 [label="squared_error = 777.2\nsamples = 1166\nvalue = 265.9"] ;
85 -> 86 ;
87 [label="WorkMode <= 4.5\nsquared_error = 2920.7\nsamples = 9067\nvalue = 281.5"] ;
85 -> 87 ;
88 [label="WorkMode <= 2.5\nsquared_error = 3173.5\nsamples = 7493\nvalue = 283.7"] ;
87 -> 88 ;
89 [label="WorkMode <= 1.5\nsquared_error = 2428.7\nsamples = 3970\nvalue = 278.9"] ;
88 -> 89 ;
90 [label="squared_error = 3016.8\nsamples = 2000\nvalue = 282.1"] ;
89 -> 90 ;
91 [label="squared_error = 1811.4\nsamples = 1970\nvalue = 275.6"] ;
89 -> 91 ;
92 [label="WorkMode <= 3.5\nsquared_error = 3958.8\nsamples = 3523\nvalue = 289.1"] ;
88 -> 92 ;
93 [label="squared_error = 3516.3\nsamples = 1738\nvalue = 288.4"] ;
92 -> 93 ;
94 [label="squared_error = 4381.9\nsamples = 1785\nvalue = 289.8"] ;
92 -> 94 ;
95 [label="squared_error = 1535.2\nsamples = 1574\nvalue = 270.5"] ;
87 -> 95 ;
96 [label="WorkMode <= 6.5\nsquared_error = 6302.7\nsamples = 3151\nvalue = 305.5"] ;
84 -> 96 ;
97 [label="squared_error = 6464.3\nsamples = 1680\nvalue = 302.7"] ;
96 -> 97 ;
98 [label="squared_error = 6097.9\nsamples = 1471\nvalue = 308.7"] ;
96 -> 98 ;
99 [label="squared_error = 28.6\nsamples = 1421\nvalue = 256.6"] ;
83 -> 99 ;
100 [label="squared_error = 4075.4\nsamples = 1363\nvalue = 313.4"] ;
82 -> 100 ;
101 [label="WorkMode <= 2.5\nsquared_error = 2743.6\nsamples = 16230\nvalue = 303.5"] ;
81 -> 101 ;
102 [label="WorkMode <= 0.5\nsquared_error = 1743.4\nsamples = 5353\nvalue = 293.5"] ;
101 -> 102 ;
103 [label="squared_error = 1669.6\nsamples = 1237\nvalue = 302.3"] ;
102 -> 103 ;
104 [label="WorkMode <= 1.5\nsquared_error = 1734.9\nsamples = 4116\nvalue = 290.8"] ;
102 -> 104 ;
105 [label="squared_error = 1732.9\nsamples = 2097\nvalue = 289.9"] ;
104 -> 105 ;
106 [label="squared_error = 1735.1\nsamples = 2019\nvalue = 291.8"] ;
104 -> 106 ;
107 [label="WorkMode <= 3.5\nsquared_error = 3165.6\nsamples = 10877\nvalue = 308.4"] ;
101 -> 107 ;
108 [label="squared_error = 2259.1\nsamples = 1777\nvalue = 326.5"] ;
107 -> 108 ;
109 [label="WorkMode <= 4.5\nsquared_error = 3266.6\nsamples = 9100\nvalue = 304.9"] ;
107 -> 109 ;
110 [label="squared_error = 2261.4\nsamples = 1636\nvalue = 280.4"] ;
109 -> 110 ;
111 [label="WorkMode <= 6.5\nsquared_error = 3327.6\nsamples = 7464\nvalue = 310.4"] ;
109 -> 111 ;
112 [label="WorkMode <= 5.5\nsquared_error = 3134.0\nsamples = 3263\nvalue = 318.6"] ;
111 -> 112 ;
113 [label="squared_error = 3106.2\nsamples = 1713\nvalue = 312.6"] ;
112 -> 113 ;
114 [label="squared_error = 3079.2\nsamples = 1550\nvalue = 325.3"] ;
112 -> 114 ;
115 [label="WorkMode <= 7.5\nsquared_error = 3383.9\nsamples = 4201\nvalue = 304.0"] ;
111 -> 115 ;
116 [label="squared_error = 2605.5\nsamples = 1616\nvalue = 284.2"] ;
115 -> 116 ;
117 [label="WorkMode <= 8.5\nsquared_error = 3470.0\nsamples = 2585\nvalue = 316.4"] ;
115 -> 117 ;
118 [label="squared_error = 3550.2\nsamples = 1422\nvalue = 330.3"] ;
117 -> 118 ;
119 [label="squared_error = 2815.1\nsamples = 1163\nvalue = 298.8"] ;
117 -> 119 ;
120 [label="WorkMode <= 2.5\nsquared_error = 3692.9\nsamples = 31410\nvalue = 335.4"] ;
80 -> 120 ;
121 [label="Util <= 87.5\nsquared_error = 4027.4\nsamples = 11157\nvalue = 321.3"] ;
120 -> 121 ;
122 [label="WorkMode <= 0.5\nsquared_error = 2565.8\nsamples = 7371\nvalue = 310.1"] ;
121 -> 122 ;
123 [label="squared_error = 2729.3\nsamples = 3239\nvalue = 319.0"] ;
122 -> 123 ;
124 [label="WorkMode <= 1.5\nsquared_error = 2325.9\nsamples = 4132\nvalue = 303.1"] ;
122 -> 124 ;
125 [label="squared_error = 2835.2\nsamples = 2120\nvalue = 307.9"] ;
124 -> 125 ;
126 [label="squared_error = 1738.3\nsamples = 2012\nvalue = 298.0"] ;
124 -> 126 ;
127 [label="WorkMode <= 1.5\nsquared_error = 6158.0\nsamples = 3786\nvalue = 343.3"] ;
121 -> 127 ;
128 [label="WorkMode <= 0.5\nsquared_error = 6430.7\nsamples = 2554\nvalue = 359.0"] ;
127 -> 128 ;
129 [label="squared_error = 3467.0\nsamples = 1323\nvalue = 334.2"] ;
128 -> 129 ;
130 [label="squared_error = 8280.0\nsamples = 1231\nvalue = 386.4"] ;
128 -> 130 ;
131 [label="squared_error = 4100.2\nsamples = 1232\nvalue = 311.6"] ;
127 -> 131 ;
132 [label="WorkMode <= 3.5\nsquared_error = 3343.6\nsamples = 20253\nvalue = 343.1"] ;
120 -> 132 ;
133 [label="Util <= 87.5\nsquared_error = 2431.7\nsamples = 3073\nvalue = 361.6"] ;
132 -> 133 ;
134 [label="squared_error = 178.8\nsamples = 1769\nvalue = 343.4"] ;
133 -> 134 ;
135 [label="squared_error = 4376.5\nsamples = 1304\nvalue = 385.4"] ;
133 -> 135 ;
136 [label="WorkMode <= 8.5\nsquared_error = 3435.2\nsamples = 17180\nvalue = 339.7"] ;
132 -> 136 ;
137 [label="WorkMode <= 7.5\nsquared_error = 3516.7\nsamples = 14041\nvalue = 336.4"] ;
136 -> 137 ;
138 [label="WorkMode <= 6.5\nsquared_error = 3297.7\nsamples = 11518\nvalue = 343.8"] ;
137 -> 138 ;
139 [label="Util <= 87.5\nsquared_error = 3686.6\nsamples = 8990\nvalue = 337.8"] ;
138 -> 139 ;
140 [label="WorkMode <= 4.5\nsquared_error = 3023.6\nsamples = 5588\nvalue = 330.0"] ;
139 -> 140 ;
141 [label="squared_error = 3181.3\nsamples = 1772\nvalue = 309.0"] ;
140 -> 141 ;
142 [label="WorkMode <= 5.5\nsquared_error = 2660.8\nsamples = 3816\nvalue = 339.5"] ;
140 -> 142 ;
143 [label="squared_error = 1025.3\nsamples = 1541\nvalue = 363.7"] ;
142 -> 143 ;
144 [label="squared_error = 3101.0\nsamples = 2275\nvalue = 323.2"] ;
142 -> 144 ;
145 [label="WorkMode <= 4.5\nsquared_error = 4519.5\nsamples = 3402\nvalue = 350.8"] ;
139 -> 145 ;
146 [label="squared_error = 152.6\nsamples = 1171\nvalue = 384.1"] ;
145 -> 146 ;
147 [label="WorkMode <= 5.5\nsquared_error = 5957.2\nsamples = 2231\nvalue = 332.9"] ;
145 -> 147 ;
148 [label="squared_error = 2992.6\nsamples = 1149\nvalue = 285.7"] ;
147 -> 148 ;
149 [label="squared_error = 4212.7\nsamples = 1082\nvalue = 383.2"] ;
147 -> 149 ;
150 [label="Util <= 87.5\nsquared_error = 1331.4\nsamples = 2528\nvalue = 365.0"] ;
138 -> 150 ;
151 [label="squared_error = 2095.7\nsamples = 1445\nvalue = 374.4"] ;
150 -> 151 ;
152 [label="squared_error = 25.5\nsamples = 1083\nvalue = 352.5"] ;
150 -> 152 ;
153 [label="Util <= 87.5\nsquared_error = 3172.9\nsamples = 2523\nvalue = 303.6"] ;
137 -> 153 ;
154 [label="squared_error = 3724.9\nsamples = 1400\nvalue = 313.9"] ;
153 -> 154 ;
155 [label="squared_error = 2163.5\nsamples = 1123\nvalue = 290.4"] ;
153 -> 155 ;
156 [label="Util <= 87.5\nsquared_error = 2801.6\nsamples = 3139\nvalue = 354.5"] ;
136 -> 156 ;
157 [label="squared_error = 4020.7\nsamples = 2156\nvalue = 355.4"] ;
156 -> 157 ;
158 [label="squared_error = 26.2\nsamples = 983\nvalue = 352.5"] ;
156 -> 158 ;
}